<Nnet> 
<Splice> 78 78 
[ 0 ]
<!EndOfComponent> 
<AddShift> 78 78 
<LearnRateCoef> 0  [ 2.50552e-09 2.518067e-09 -1.18769e-08 3.705504e-08 1.969821e-08 2.605777e-08 -1.326029e-08 -1.410891e-08 3.046522e-08 2.39749e-09 3.622355e-09 9.763409e-09 -3.864345e-08 -3.358775e-08 9.102761e-09 3.61399e-09 -1.872886e-09 3.34162e-08 1.805338e-09 4.049803e-08 3.943967e-08 -2.686717e-08 -3.88674e-08 3.798328e-09 1.265603e-08 4.180817e-09 -2.113722e-05 -1.919576e-05 -2.283177e-05 -1.919818e-05 -1.450349e-05 6.562807e-06 5.042978e-06 -1.470127e-05 3.198721e-06 -2.743464e-06 -1.043169e-05 -1.394802e-05 -2.576202e-06 -8.572616e-06 -6.603076e-06 -4.060315e-06 -1.121967e-06 9.005192e-06 -3.626464e-06 4.407887e-06 6.12998e-06 9.597708e-06 1.49702e-06 -0.0008238056 -0.005041254 1.607844e-05 -2.172785e-06 -4.151976e-06 -1.052607e-07 4.86843e-06 4.497879e-06 9.937787e-07 5.291962e-08 1.832433e-06 3.13814e-06 -1.51619e-07 -3.244292e-06 -1.947063e-06 4.709202e-06 8.887861e-07 -2.116064e-06 -1.566e-06 -7.900197e-07 -1.176553e-06 1.192631e-06 1.028283e-06 -4.912136e-07 -4.395404e-06 -2.830674e-06 -6.669251e-06 -3.196215e-05 -1.25874e-06 ]
<!EndOfComponent> 
<Rescale> 78 78 
<LearnRateCoef> 0  [ 1 1 1 1 1 1 1 1 1 1 1 1 1 1 1 1 1 1 1 1 1 1 1 1 1 1 8.312963 9.071282 8.674168 7.909551 7.32861 7.098778 7.128057 7.209856 7.300424 7.317978 7.307595 7.334725 7.235948 7.403008 7.772651 7.653919 7.502025 7.516307 7.542513 7.25052 6.969277 6.800418 6.469378 5.984059 11.71271 3.042804 22.52836 26.70271 25.18727 22.30736 20.2716 19.76445 20.11737 20.61857 20.93446 20.93817 20.83505 20.70996 20.26619 20.95264 22.33583 21.83912 21.47154 21.39595 21.09588 20.0146 18.96485 18.46265 17.3928 15.264 35.72741 6.802546 ]
<!EndOfComponent> 
</Nnet> 
